digraph Tree {
node [shape=box, fontname="helvetica"] ;
edge [fontname="helvetica"] ;
0 [label="age <= 0.017\nentropy = 0.743\nsamples = 796\nvalue = [628, 168]"] ;
1 [label="bmi <= -0.472\nentropy = 0.178\nsamples = 373\nvalue = [363, 10]"] ;
0 -> 1 [labeldistance=2.5, labelangle=45, headlabel="True"] ;
2 [label="entropy = 0.0\nsamples = 181\nvalue = [181, 0]"] ;
1 -> 2 ;
3 [label="age <= -1.972\nentropy = 0.295\nsamples = 192\nvalue = [182, 10]"] ;
1 -> 3 ;
4 [label="entropy = 0.0\nsamples = 1\nvalue = [0, 1]"] ;
3 -> 4 ;
5 [label="age <= -0.422\nentropy = 0.274\nsamples = 191\nvalue = [182, 9]"] ;
3 -> 5 ;
6 [label="smoking_status_smokes <= 0.5\nentropy = 0.079\nsamples = 102\nvalue = [101, 1]"] ;
5 -> 6 ;
7 [label="entropy = 0.0\nsamples = 79\nvalue = [79, 0]"] ;
6 -> 7 ;
8 [label="avg_glucose_level <= -0.683\nentropy = 0.258\nsamples = 23\nvalue = [22, 1]"] ;
6 -> 8 ;
9 [label="avg_glucose_level <= -0.719\nentropy = 0.722\nsamples = 5\nvalue = [4, 1]"] ;
8 -> 9 ;
10 [label="entropy = 0.0\nsamples = 4\nvalue = [4, 0]"] ;
9 -> 10 ;
11 [label="entropy = 0.0\nsamples = 1\nvalue = [0, 1]"] ;
9 -> 11 ;
12 [label="entropy = 0.0\nsamples = 18\nvalue = [18, 0]"] ;
8 -> 12 ;
13 [label="bmi <= -0.459\nentropy = 0.436\nsamples = 89\nvalue = [81, 8]"] ;
5 -> 13 ;
14 [label="entropy = 0.0\nsamples = 1\nvalue = [0, 1]"] ;
13 -> 14 ;
15 [label="avg_glucose_level <= -0.932\nentropy = 0.401\nsamples = 88\nvalue = [81, 7]"] ;
13 -> 15 ;
16 [label="Residence_type <= 0.5\nentropy = 1.0\nsamples = 4\nvalue = [2, 2]"] ;
15 -> 16 ;
17 [label="entropy = 0.0\nsamples = 2\nvalue = [0, 2]"] ;
16 -> 17 ;
18 [label="entropy = 0.0\nsamples = 2\nvalue = [2, 0]"] ;
16 -> 18 ;
19 [label="smoking_status_formerly smoked <= 0.5\nentropy = 0.326\nsamples = 84\nvalue = [79, 5]"] ;
15 -> 19 ;
20 [label="Residence_type <= 0.5\nentropy = 0.242\nsamples = 75\nvalue = [72, 3]"] ;
19 -> 20 ;
21 [label="entropy = 0.0\nsamples = 37\nvalue = [37, 0]"] ;
20 -> 21 ;
22 [label="bmi <= -0.324\nentropy = 0.398\nsamples = 38\nvalue = [35, 3]"] ;
20 -> 22 ;
23 [label="bmi <= -0.362\nentropy = 1.0\nsamples = 2\nvalue = [1, 1]"] ;
22 -> 23 ;
24 [label="entropy = 0.0\nsamples = 1\nvalue = [1, 0]"] ;
23 -> 24 ;
25 [label="entropy = 0.0\nsamples = 1\nvalue = [0, 1]"] ;
23 -> 25 ;
26 [label="bmi <= 2.073\nentropy = 0.31\nsamples = 36\nvalue = [34, 2]"] ;
22 -> 26 ;
27 [label="age <= -0.071\nentropy = 0.191\nsamples = 34\nvalue = [33, 1]"] ;
26 -> 27 ;
28 [label="entropy = 0.0\nsamples = 27\nvalue = [27, 0]"] ;
27 -> 28 ;
29 [label="avg_glucose_level <= -0.568\nentropy = 0.592\nsamples = 7\nvalue = [6, 1]"] ;
27 -> 29 ;
30 [label="gender <= 0.5\nentropy = 1.0\nsamples = 2\nvalue = [1, 1]"] ;
29 -> 30 ;
31 [label="entropy = 0.0\nsamples = 1\nvalue = [0, 1]"] ;
30 -> 31 ;
32 [label="entropy = 0.0\nsamples = 1\nvalue = [1, 0]"] ;
30 -> 32 ;
33 [label="entropy = 0.0\nsamples = 5\nvalue = [5, 0]"] ;
29 -> 33 ;
34 [label="work_type_Self-employed <= 0.5\nentropy = 1.0\nsamples = 2\nvalue = [1, 1]"] ;
26 -> 34 ;
35 [label="entropy = 0.0\nsamples = 1\nvalue = [1, 0]"] ;
34 -> 35 ;
36 [label="entropy = 0.0\nsamples = 1\nvalue = [0, 1]"] ;
34 -> 36 ;
37 [label="bmi <= 0.161\nentropy = 0.764\nsamples = 9\nvalue = [7, 2]"] ;
19 -> 37 ;
38 [label="avg_glucose_level <= -0.149\nentropy = 0.918\nsamples = 3\nvalue = [1, 2]"] ;
37 -> 38 ;
39 [label="entropy = 0.0\nsamples = 2\nvalue = [0, 2]"] ;
38 -> 39 ;
40 [label="entropy = 0.0\nsamples = 1\nvalue = [1, 0]"] ;
38 -> 40 ;
41 [label="entropy = 0.0\nsamples = 6\nvalue = [6, 0]"] ;
37 -> 41 ;
42 [label="age <= 1.07\nentropy = 0.953\nsamples = 423\nvalue = [265, 158]"] ;
0 -> 42 [labeldistance=2.5, labelangle=-45, headlabel="False"] ;
43 [label="avg_glucose_level <= 2.563\nentropy = 0.853\nsamples = 277\nvalue = [200, 77]"] ;
42 -> 43 ;
44 [label="bmi_missing <= 0.5\nentropy = 0.831\nsamples = 270\nvalue = [199, 71]"] ;
43 -> 44 ;
45 [label="hypertension <= 0.5\nentropy = 0.797\nsamples = 249\nvalue = [189, 60]"] ;
44 -> 45 ;
46 [label="avg_glucose_level <= -0.537\nentropy = 0.736\nsamples = 198\nvalue = [157, 41]"] ;
45 -> 46 ;
47 [label="bmi <= -0.588\nentropy = 0.452\nsamples = 74\nvalue = [67, 7]"] ;
46 -> 47 ;
48 [label="avg_glucose_level <= -0.776\nentropy = 0.845\nsamples = 11\nvalue = [8, 3]"] ;
47 -> 48 ;
49 [label="entropy = 0.0\nsamples = 4\nvalue = [4, 0]"] ;
48 -> 49 ;
50 [label="avg_glucose_level <= -0.66\nentropy = 0.985\nsamples = 7\nvalue = [4, 3]"] ;
48 -> 50 ;
51 [label="age <= 0.653\nentropy = 0.971\nsamples = 5\nvalue = [2, 3]"] ;
50 -> 51 ;
52 [label="avg_glucose_level <= -0.739\nentropy = 0.918\nsamples = 3\nvalue = [2, 1]"] ;
51 -> 52 ;
53 [label="entropy = 0.0\nsamples = 1\nvalue = [0, 1]"] ;
52 -> 53 ;
54 [label="entropy = 0.0\nsamples = 2\nvalue = [2, 0]"] ;
52 -> 54 ;
55 [label="entropy = 0.0\nsamples = 2\nvalue = [0, 2]"] ;
51 -> 55 ;
56 [label="entropy = 0.0\nsamples = 2\nvalue = [2, 0]"] ;
50 -> 56 ;
57 [label="smoking_status_never smoked <= 0.5\nentropy = 0.341\nsamples = 63\nvalue = [59, 4]"] ;
47 -> 57 ;
58 [label="entropy = 0.0\nsamples = 36\nvalue = [36, 0]"] ;
57 -> 58 ;
59 [label="Residence_type <= 0.5\nentropy = 0.605\nsamples = 27\nvalue = [23, 4]"] ;
57 -> 59 ;
60 [label="entropy = 0.0\nsamples = 11\nvalue = [11, 0]"] ;
59 -> 60 ;
61 [label="avg_glucose_level <= -0.927\nentropy = 0.811\nsamples = 16\nvalue = [12, 4]"] ;
59 -> 61 ;
62 [label="entropy = 0.0\nsamples = 2\nvalue = [0, 2]"] ;
61 -> 62 ;
63 [label="age <= 0.895\nentropy = 0.592\nsamples = 14\nvalue = [12, 2]"] ;
61 -> 63 ;
64 [label="gender <= 0.5\nentropy = 0.391\nsamples = 13\nvalue = [12, 1]"] ;
63 -> 64 ;
65 [label="entropy = 0.0\nsamples = 9\nvalue = [9, 0]"] ;
64 -> 65 ;
66 [label="bmi <= -0.104\nentropy = 0.811\nsamples = 4\nvalue = [3, 1]"] ;
64 -> 66 ;
67 [label="entropy = 0.0\nsamples = 2\nvalue = [2, 0]"] ;
66 -> 67 ;
68 [label="work_type_Private <= 0.5\nentropy = 1.0\nsamples = 2\nvalue = [1, 1]"] ;
66 -> 68 ;
69 [label="entropy = 0.0\nsamples = 1\nvalue = [1, 0]"] ;
68 -> 69 ;
70 [label="entropy = 0.0\nsamples = 1\nvalue = [0, 1]"] ;
68 -> 70 ;
71 [label="entropy = 0.0\nsamples = 1\nvalue = [0, 1]"] ;
63 -> 71 ;
72 [label="age <= 0.28\nentropy = 0.847\nsamples = 124\nvalue = [90, 34]"] ;
46 -> 72 ;
73 [label="avg_glucose_level <= -0.06\nentropy = 0.469\nsamples = 30\nvalue = [27, 3]"] ;
72 -> 73 ;
74 [label="age <= 0.105\nentropy = 0.811\nsamples = 12\nvalue = [9, 3]"] ;
73 -> 74 ;
75 [label="bmi <= -0.201\nentropy = 0.918\nsamples = 3\nvalue = [1, 2]"] ;
74 -> 75 ;
76 [label="entropy = 0.0\nsamples = 1\nvalue = [1, 0]"] ;
75 -> 76 ;
77 [label="entropy = 0.0\nsamples = 2\nvalue = [0, 2]"] ;
75 -> 77 ;
78 [label="work_type_Private <= 0.5\nentropy = 0.503\nsamples = 9\nvalue = [8, 1]"] ;
74 -> 78 ;
79 [label="entropy = 0.0\nsamples = 6\nvalue = [6, 0]"] ;
78 -> 79 ;
80 [label="smoking_status_never smoked <= 0.5\nentropy = 0.918\nsamples = 3\nvalue = [2, 1]"] ;
78 -> 80 ;
81 [label="entropy = 0.0\nsamples = 2\nvalue = [2, 0]"] ;
80 -> 81 ;
82 [label="entropy = 0.0\nsamples = 1\nvalue = [0, 1]"] ;
80 -> 82 ;
83 [label="entropy = 0.0\nsamples = 18\nvalue = [18, 0]"] ;
73 -> 83 ;
84 [label="bmi <= 0.955\nentropy = 0.915\nsamples = 94\nvalue = [63, 31]"] ;
72 -> 84 ;
85 [label="age <= 0.807\nentropy = 0.858\nsamples = 78\nvalue = [56, 22]"] ;
84 -> 85 ;
86 [label="ever_married <= 0.5\nentropy = 0.918\nsamples = 57\nvalue = [38, 19]"] ;
85 -> 86 ;
87 [label="entropy = 0.0\nsamples = 4\nvalue = [4, 0]"] ;
86 -> 87 ;
88 [label="bmi <= -0.614\nentropy = 0.941\nsamples = 53\nvalue = [34, 19]"] ;
86 -> 88 ;
89 [label="entropy = 0.0\nsamples = 2\nvalue = [0, 2]"] ;
88 -> 89 ;
90 [label="bmi <= -0.466\nentropy = 0.918\nsamples = 51\nvalue = [34, 17]"] ;
88 -> 90 ;
91 [label="entropy = 0.0\nsamples = 4\nvalue = [4, 0]"] ;
90 -> 91 ;
92 [label="bmi <= -0.059\nentropy = 0.944\nsamples = 47\nvalue = [30, 17]"] ;
90 -> 92 ;
93 [label="avg_glucose_level <= -0.423\nentropy = 0.918\nsamples = 9\nvalue = [3, 6]"] ;
92 -> 93 ;
94 [label="entropy = 0.0\nsamples = 2\nvalue = [2, 0]"] ;
93 -> 94 ;
95 [label="avg_glucose_level <= 1.457\nentropy = 0.592\nsamples = 7\nvalue = [1, 6]"] ;
93 -> 95 ;
96 [label="entropy = 0.0\nsamples = 5\nvalue = [0, 5]"] ;
95 -> 96 ;
97 [label="work_type_Private <= 0.5\nentropy = 1.0\nsamples = 2\nvalue = [1, 1]"] ;
95 -> 97 ;
98 [label="entropy = 0.0\nsamples = 1\nvalue = [1, 0]"] ;
97 -> 98 ;
99 [label="entropy = 0.0\nsamples = 1\nvalue = [0, 1]"] ;
97 -> 99 ;
100 [label="gender <= 0.5\nentropy = 0.868\nsamples = 38\nvalue = [27, 11]"] ;
92 -> 100 ;
101 [label="avg_glucose_level <= 2.093\nentropy = 0.414\nsamples = 12\nvalue = [11, 1]"] ;
100 -> 101 ;
102 [label="entropy = 0.0\nsamples = 11\nvalue = [11, 0]"] ;
101 -> 102 ;
103 [label="entropy = 0.0\nsamples = 1\nvalue = [0, 1]"] ;
101 -> 103 ;
104 [label="avg_glucose_level <= 0.19\nentropy = 0.961\nsamples = 26\nvalue = [16, 10]"] ;
100 -> 104 ;
105 [label="smoking_status_smokes <= 0.5\nentropy = 0.918\nsamples = 12\nvalue = [4, 8]"] ;
104 -> 105 ;
106 [label="avg_glucose_level <= -0.076\nentropy = 1.0\nsamples = 8\nvalue = [4, 4]"] ;
105 -> 106 ;
107 [label="bmi <= 0.361\nentropy = 0.918\nsamples = 6\nvalue = [4, 2]"] ;
106 -> 107 ;
108 [label="avg_glucose_level <= -0.392\nentropy = 0.918\nsamples = 3\nvalue = [1, 2]"] ;
107 -> 108 ;
109 [label="entropy = 0.0\nsamples = 2\nvalue = [0, 2]"] ;
108 -> 109 ;
110 [label="entropy = 0.0\nsamples = 1\nvalue = [1, 0]"] ;
108 -> 110 ;
111 [label="entropy = 0.0\nsamples = 3\nvalue = [3, 0]"] ;
107 -> 111 ;
112 [label="entropy = 0.0\nsamples = 2\nvalue = [0, 2]"] ;
106 -> 112 ;
113 [label="entropy = 0.0\nsamples = 4\nvalue = [0, 4]"] ;
105 -> 113 ;
114 [label="bmi <= 0.736\nentropy = 0.592\nsamples = 14\nvalue = [12, 2]"] ;
104 -> 114 ;
115 [label="avg_glucose_level <= 1.919\nentropy = 0.391\nsamples = 13\nvalue = [12, 1]"] ;
114 -> 115 ;
116 [label="entropy = 0.0\nsamples = 9\nvalue = [9, 0]"] ;
115 -> 116 ;
117 [label="avg_glucose_level <= 2.0\nentropy = 0.811\nsamples = 4\nvalue = [3, 1]"] ;
115 -> 117 ;
118 [label="entropy = 0.0\nsamples = 1\nvalue = [0, 1]"] ;
117 -> 118 ;
119 [label="entropy = 0.0\nsamples = 3\nvalue = [3, 0]"] ;
117 -> 119 ;
120 [label="entropy = 0.0\nsamples = 1\nvalue = [0, 1]"] ;
114 -> 120 ;
121 [label="bmi <= -0.782\nentropy = 0.592\nsamples = 21\nvalue = [18, 3]"] ;
85 -> 121 ;
122 [label="smoking_status_formerly smoked <= 0.5\nentropy = 0.918\nsamples = 3\nvalue = [1, 2]"] ;
121 -> 122 ;
123 [label="entropy = 0.0\nsamples = 2\nvalue = [0, 2]"] ;
122 -> 123 ;
124 [label="entropy = 0.0\nsamples = 1\nvalue = [1, 0]"] ;
122 -> 124 ;
125 [label="avg_glucose_level <= -0.313\nentropy = 0.31\nsamples = 18\nvalue = [17, 1]"] ;
121 -> 125 ;
126 [label="avg_glucose_level <= -0.36\nentropy = 0.811\nsamples = 4\nvalue = [3, 1]"] ;
125 -> 126 ;
127 [label="entropy = 0.0\nsamples = 3\nvalue = [3, 0]"] ;
126 -> 127 ;
128 [label="entropy = 0.0\nsamples = 1\nvalue = [0, 1]"] ;
126 -> 128 ;
129 [label="entropy = 0.0\nsamples = 14\nvalue = [14, 0]"] ;
125 -> 129 ;
130 [label="avg_glucose_level <= 1.923\nentropy = 0.989\nsamples = 16\nvalue = [7, 9]"] ;
84 -> 130 ;
131 [label="bmi <= 1.859\nentropy = 0.764\nsamples = 9\nvalue = [2, 7]"] ;
130 -> 131 ;
132 [label="entropy = 0.0\nsamples = 7\nvalue = [0, 7]"] ;
131 -> 132 ;
133 [label="entropy = 0.0\nsamples = 2\nvalue = [2, 0]"] ;
131 -> 133 ;
134 [label="smoking_status_never smoked <= 0.5\nentropy = 0.863\nsamples = 7\nvalue = [5, 2]"] ;
130 -> 134 ;
135 [label="entropy = 0.0\nsamples = 4\nvalue = [4, 0]"] ;
134 -> 135 ;
136 [label="Residence_type <= 0.5\nentropy = 0.918\nsamples = 3\nvalue = [1, 2]"] ;
134 -> 136 ;
137 [label="avg_glucose_level <= 2.479\nentropy = 1.0\nsamples = 2\nvalue = [1, 1]"] ;
136 -> 137 ;
138 [label="entropy = 0.0\nsamples = 1\nvalue = [1, 0]"] ;
137 -> 138 ;
139 [label="entropy = 0.0\nsamples = 1\nvalue = [0, 1]"] ;
137 -> 139 ;
140 [label="entropy = 0.0\nsamples = 1\nvalue = [0, 1]"] ;
136 -> 140 ;
141 [label="ever_married <= 0.5\nentropy = 0.953\nsamples = 51\nvalue = [32, 19]"] ;
45 -> 141 ;
142 [label="entropy = 0.0\nsamples = 4\nvalue = [0, 4]"] ;
141 -> 142 ;
143 [label="age <= 0.939\nentropy = 0.903\nsamples = 47\nvalue = [32, 15]"] ;
141 -> 143 ;
144 [label="avg_glucose_level <= 1.968\nentropy = 0.961\nsamples = 39\nvalue = [24, 15]"] ;
143 -> 144 ;
145 [label="bmi <= 0.303\nentropy = 0.908\nsamples = 34\nvalue = [23, 11]"] ;
144 -> 145 ;
146 [label="gender <= 0.5\nentropy = 0.998\nsamples = 17\nvalue = [8, 9]"] ;
145 -> 146 ;
147 [label="smoking_status_never smoked <= 0.5\nentropy = 0.845\nsamples = 11\nvalue = [3, 8]"] ;
146 -> 147 ;
148 [label="entropy = 0.0\nsamples = 4\nvalue = [0, 4]"] ;
147 -> 148 ;
149 [label="avg_glucose_level <= -0.522\nentropy = 0.985\nsamples = 7\nvalue = [3, 4]"] ;
147 -> 149 ;
150 [label="entropy = 0.0\nsamples = 1\nvalue = [1, 0]"] ;
149 -> 150 ;
151 [label="avg_glucose_level <= 1.231\nentropy = 0.918\nsamples = 6\nvalue = [2, 4]"] ;
149 -> 151 ;
152 [label="entropy = 0.0\nsamples = 2\nvalue = [0, 2]"] ;
151 -> 152 ;
153 [label="bmi <= -0.123\nentropy = 1.0\nsamples = 4\nvalue = [2, 2]"] ;
151 -> 153 ;
154 [label="entropy = 0.0\nsamples = 2\nvalue = [0, 2]"] ;
153 -> 154 ;
155 [label="entropy = 0.0\nsamples = 2\nvalue = [2, 0]"] ;
153 -> 155 ;
156 [label="work_type_Self-employed <= 0.5\nentropy = 0.65\nsamples = 6\nvalue = [5, 1]"] ;
146 -> 156 ;
157 [label="entropy = 0.0\nsamples = 5\nvalue = [5, 0]"] ;
156 -> 157 ;
158 [label="entropy = 0.0\nsamples = 1\nvalue = [0, 1]"] ;
156 -> 158 ;
159 [label="avg_glucose_level <= 0.069\nentropy = 0.523\nsamples = 17\nvalue = [15, 2]"] ;
145 -> 159 ;
160 [label="avg_glucose_level <= -0.114\nentropy = 0.722\nsamples = 10\nvalue = [8, 2]"] ;
159 -> 160 ;
161 [label="avg_glucose_level <= -0.86\nentropy = 0.503\nsamples = 9\nvalue = [8, 1]"] ;
160 -> 161 ;
162 [label="avg_glucose_level <= -0.954\nentropy = 1.0\nsamples = 2\nvalue = [1, 1]"] ;
161 -> 162 ;
163 [label="entropy = 0.0\nsamples = 1\nvalue = [1, 0]"] ;
162 -> 163 ;
164 [label="entropy = 0.0\nsamples = 1\nvalue = [0, 1]"] ;
162 -> 164 ;
165 [label="entropy = 0.0\nsamples = 7\nvalue = [7, 0]"] ;
161 -> 165 ;
166 [label="entropy = 0.0\nsamples = 1\nvalue = [0, 1]"] ;
160 -> 166 ;
167 [label="entropy = 0.0\nsamples = 7\nvalue = [7, 0]"] ;
159 -> 167 ;
168 [label="age <= 0.632\nentropy = 0.722\nsamples = 5\nvalue = [1, 4]"] ;
144 -> 168 ;
169 [label="entropy = 0.0\nsamples = 4\nvalue = [0, 4]"] ;
168 -> 169 ;
170 [label="entropy = 0.0\nsamples = 1\nvalue = [1, 0]"] ;
168 -> 170 ;
171 [label="entropy = 0.0\nsamples = 8\nvalue = [8, 0]"] ;
143 -> 171 ;
172 [label="age <= 0.149\nentropy = 0.998\nsamples = 21\nvalue = [10, 11]"] ;
44 -> 172 ;
173 [label="entropy = 0.0\nsamples = 2\nvalue = [2, 0]"] ;
172 -> 173 ;
174 [label="avg_glucose_level <= -0.353\nentropy = 0.982\nsamples = 19\nvalue = [8, 11]"] ;
172 -> 174 ;
175 [label="smoking_status_formerly smoked <= 0.5\nentropy = 0.65\nsamples = 6\nvalue = [1, 5]"] ;
174 -> 175 ;
176 [label="entropy = 0.0\nsamples = 4\nvalue = [0, 4]"] ;
175 -> 176 ;
177 [label="age <= 0.807\nentropy = 1.0\nsamples = 2\nvalue = [1, 1]"] ;
175 -> 177 ;
178 [label="entropy = 0.0\nsamples = 1\nvalue = [0, 1]"] ;
177 -> 178 ;
179 [label="entropy = 0.0\nsamples = 1\nvalue = [1, 0]"] ;
177 -> 179 ;
180 [label="hypertension <= 0.5\nentropy = 0.996\nsamples = 13\nvalue = [7, 6]"] ;
174 -> 180 ;
181 [label="smoking_status_never smoked <= 0.5\nentropy = 0.971\nsamples = 10\nvalue = [4, 6]"] ;
180 -> 181 ;
182 [label="avg_glucose_level <= 1.928\nentropy = 0.985\nsamples = 7\nvalue = [4, 3]"] ;
181 -> 182 ;
183 [label="Residence_type <= 0.5\nentropy = 0.722\nsamples = 5\nvalue = [4, 1]"] ;
182 -> 183 ;
184 [label="entropy = 0.0\nsamples = 1\nvalue = [0, 1]"] ;
183 -> 184 ;
185 [label="entropy = 0.0\nsamples = 4\nvalue = [4, 0]"] ;
183 -> 185 ;
186 [label="entropy = 0.0\nsamples = 2\nvalue = [0, 2]"] ;
182 -> 186 ;
187 [label="entropy = 0.0\nsamples = 3\nvalue = [0, 3]"] ;
181 -> 187 ;
188 [label="entropy = 0.0\nsamples = 3\nvalue = [3, 0]"] ;
180 -> 188 ;
189 [label="work_type_Private <= 0.5\nentropy = 0.592\nsamples = 7\nvalue = [1, 6]"] ;
43 -> 189 ;
190 [label="entropy = 0.0\nsamples = 1\nvalue = [1, 0]"] ;
189 -> 190 ;
191 [label="entropy = 0.0\nsamples = 6\nvalue = [0, 6]"] ;
189 -> 191 ;
192 [label="ever_married <= 0.5\nentropy = 0.991\nsamples = 146\nvalue = [65, 81]"] ;
42 -> 192 ;
193 [label="entropy = 0.0\nsamples = 13\nvalue = [0, 13]"] ;
192 -> 193 ;
194 [label="avg_glucose_level <= 2.359\nentropy = 1.0\nsamples = 133\nvalue = [65, 68]"] ;
192 -> 194 ;
195 [label="age <= 1.421\nentropy = 0.999\nsamples = 125\nvalue = [65, 60]"] ;
194 -> 195 ;
196 [label="bmi_missing <= 0.5\nentropy = 0.976\nsamples = 83\nvalue = [49, 34]"] ;
195 -> 196 ;
197 [label="avg_glucose_level <= -0.835\nentropy = 0.947\nsamples = 74\nvalue = [47, 27]"] ;
196 -> 197 ;
198 [label="avg_glucose_level <= -1.101\nentropy = 0.439\nsamples = 11\nvalue = [10, 1]"] ;
197 -> 198 ;
199 [label="gender <= 0.5\nentropy = 1.0\nsamples = 2\nvalue = [1, 1]"] ;
198 -> 199 ;
200 [label="entropy = 0.0\nsamples = 1\nvalue = [1, 0]"] ;
199 -> 200 ;
201 [label="entropy = 0.0\nsamples = 1\nvalue = [0, 1]"] ;
199 -> 201 ;
202 [label="entropy = 0.0\nsamples = 9\nvalue = [9, 0]"] ;
198 -> 202 ;
203 [label="avg_glucose_level <= -0.759\nentropy = 0.978\nsamples = 63\nvalue = [37, 26]"] ;
197 -> 203 ;
204 [label="entropy = 0.0\nsamples = 4\nvalue = [0, 4]"] ;
203 -> 204 ;
205 [label="bmi <= -1.105\nentropy = 0.953\nsamples = 59\nvalue = [37, 22]"] ;
203 -> 205 ;
206 [label="entropy = 0.0\nsamples = 2\nvalue = [0, 2]"] ;
205 -> 206 ;
207 [label="avg_glucose_level <= 0.1\nentropy = 0.935\nsamples = 57\nvalue = [37, 20]"] ;
205 -> 207 ;
208 [label="avg_glucose_level <= -0.063\nentropy = 0.784\nsamples = 30\nvalue = [23, 7]"] ;
207 -> 208 ;
209 [label="avg_glucose_level <= -0.289\nentropy = 0.871\nsamples = 24\nvalue = [17, 7]"] ;
208 -> 209 ;
210 [label="avg_glucose_level <= -0.647\nentropy = 0.742\nsamples = 19\nvalue = [15, 4]"] ;
209 -> 210 ;
211 [label="bmi <= -0.188\nentropy = 0.985\nsamples = 7\nvalue = [4, 3]"] ;
210 -> 211 ;
212 [label="work_type_Self-employed <= 0.5\nentropy = 0.971\nsamples = 5\nvalue = [2, 3]"] ;
211 -> 212 ;
213 [label="entropy = 0.0\nsamples = 2\nvalue = [0, 2]"] ;
212 -> 213 ;
214 [label="bmi <= -0.349\nentropy = 0.918\nsamples = 3\nvalue = [2, 1]"] ;
212 -> 214 ;
215 [label="entropy = 0.0\nsamples = 2\nvalue = [2, 0]"] ;
214 -> 215 ;
216 [label="entropy = 0.0\nsamples = 1\nvalue = [0, 1]"] ;
214 -> 216 ;
217 [label="entropy = 0.0\nsamples = 2\nvalue = [2, 0]"] ;
211 -> 217 ;
218 [label="bmi <= 0.161\nentropy = 0.414\nsamples = 12\nvalue = [11, 1]"] ;
210 -> 218 ;
219 [label="entropy = 0.0\nsamples = 10\nvalue = [10, 0]"] ;
218 -> 219 ;
220 [label="bmi <= 0.581\nentropy = 1.0\nsamples = 2\nvalue = [1, 1]"] ;
218 -> 220 ;
221 [label="entropy = 0.0\nsamples = 1\nvalue = [0, 1]"] ;
220 -> 221 ;
222 [label="entropy = 0.0\nsamples = 1\nvalue = [1, 0]"] ;
220 -> 222 ;
223 [label="Residence_type <= 0.5\nentropy = 0.971\nsamples = 5\nvalue = [2, 3]"] ;
209 -> 223 ;
224 [label="entropy = 0.0\nsamples = 2\nvalue = [2, 0]"] ;
223 -> 224 ;
225 [label="entropy = 0.0\nsamples = 3\nvalue = [0, 3]"] ;
223 -> 225 ;
226 [label="entropy = 0.0\nsamples = 6\nvalue = [6, 0]"] ;
208 -> 226 ;
227 [label="avg_glucose_level <= 1.698\nentropy = 0.999\nsamples = 27\nvalue = [14, 13]"] ;
207 -> 227 ;
228 [label="work_type_Private <= 0.5\nentropy = 0.684\nsamples = 11\nvalue = [2, 9]"] ;
227 -> 228 ;
229 [label="entropy = 0.0\nsamples = 7\nvalue = [0, 7]"] ;
228 -> 229 ;
230 [label="bmi <= 0.038\nentropy = 1.0\nsamples = 4\nvalue = [2, 2]"] ;
228 -> 230 ;
231 [label="entropy = 0.0\nsamples = 1\nvalue = [1, 0]"] ;
230 -> 231 ;
232 [label="age <= 1.334\nentropy = 0.918\nsamples = 3\nvalue = [1, 2]"] ;
230 -> 232 ;
233 [label="entropy = 0.0\nsamples = 2\nvalue = [0, 2]"] ;
232 -> 233 ;
234 [label="entropy = 0.0\nsamples = 1\nvalue = [1, 0]"] ;
232 -> 234 ;
235 [label="age <= 1.202\nentropy = 0.811\nsamples = 16\nvalue = [12, 4]"] ;
227 -> 235 ;
236 [label="avg_glucose_level <= 2.289\nentropy = 0.811\nsamples = 4\nvalue = [1, 3]"] ;
235 -> 236 ;
237 [label="entropy = 0.0\nsamples = 3\nvalue = [0, 3]"] ;
236 -> 237 ;
238 [label="entropy = 0.0\nsamples = 1\nvalue = [1, 0]"] ;
236 -> 238 ;
239 [label="avg_glucose_level <= 1.849\nentropy = 0.414\nsamples = 12\nvalue = [11, 1]"] ;
235 -> 239 ;
240 [label="age <= 1.29\nentropy = 0.918\nsamples = 3\nvalue = [2, 1]"] ;
239 -> 240 ;
241 [label="entropy = 0.0\nsamples = 2\nvalue = [2, 0]"] ;
240 -> 241 ;
242 [label="entropy = 0.0\nsamples = 1\nvalue = [0, 1]"] ;
240 -> 242 ;
243 [label="entropy = 0.0\nsamples = 9\nvalue = [9, 0]"] ;
239 -> 243 ;
244 [label="heart_disease <= 0.5\nentropy = 0.764\nsamples = 9\nvalue = [2, 7]"] ;
196 -> 244 ;
245 [label="entropy = 0.0\nsamples = 6\nvalue = [0, 6]"] ;
244 -> 245 ;
246 [label="smoking_status_smokes <= 0.5\nentropy = 0.918\nsamples = 3\nvalue = [2, 1]"] ;
244 -> 246 ;
247 [label="entropy = 0.0\nsamples = 2\nvalue = [2, 0]"] ;
246 -> 247 ;
248 [label="entropy = 0.0\nsamples = 1\nvalue = [0, 1]"] ;
246 -> 248 ;
249 [label="avg_glucose_level <= -0.953\nentropy = 0.959\nsamples = 42\nvalue = [16, 26]"] ;
195 -> 249 ;
250 [label="entropy = 0.0\nsamples = 3\nvalue = [3, 0]"] ;
249 -> 250 ;
251 [label="avg_glucose_level <= -0.577\nentropy = 0.918\nsamples = 39\nvalue = [13, 26]"] ;
249 -> 251 ;
252 [label="bmi <= -0.324\nentropy = 0.592\nsamples = 14\nvalue = [2, 12]"] ;
251 -> 252 ;
253 [label="entropy = 0.0\nsamples = 8\nvalue = [0, 8]"] ;
252 -> 253 ;
254 [label="bmi <= -0.156\nentropy = 0.918\nsamples = 6\nvalue = [2, 4]"] ;
252 -> 254 ;
255 [label="entropy = 0.0\nsamples = 1\nvalue = [1, 0]"] ;
254 -> 255 ;
256 [label="smoking_status_never smoked <= 0.5\nentropy = 0.722\nsamples = 5\nvalue = [1, 4]"] ;
254 -> 256 ;
257 [label="entropy = 0.0\nsamples = 1\nvalue = [1, 0]"] ;
256 -> 257 ;
258 [label="entropy = 0.0\nsamples = 4\nvalue = [0, 4]"] ;
256 -> 258 ;
259 [label="avg_glucose_level <= -0.4\nentropy = 0.99\nsamples = 25\nvalue = [11, 14]"] ;
251 -> 259 ;
260 [label="entropy = 0.0\nsamples = 3\nvalue = [3, 0]"] ;
259 -> 260 ;
261 [label="heart_disease <= 0.5\nentropy = 0.946\nsamples = 22\nvalue = [8, 14]"] ;
259 -> 261 ;
262 [label="work_type_Private <= 0.5\nentropy = 0.998\nsamples = 17\nvalue = [8, 9]"] ;
261 -> 262 ;
263 [label="avg_glucose_level <= 0.092\nentropy = 0.764\nsamples = 9\nvalue = [2, 7]"] ;
262 -> 263 ;
264 [label="entropy = 0.0\nsamples = 6\nvalue = [0, 6]"] ;
263 -> 264 ;
265 [label="bmi <= -0.743\nentropy = 0.918\nsamples = 3\nvalue = [2, 1]"] ;
263 -> 265 ;
266 [label="entropy = 0.0\nsamples = 1\nvalue = [0, 1]"] ;
265 -> 266 ;
267 [label="entropy = 0.0\nsamples = 2\nvalue = [2, 0]"] ;
265 -> 267 ;
268 [label="avg_glucose_level <= 0.989\nentropy = 0.811\nsamples = 8\nvalue = [6, 2]"] ;
262 -> 268 ;
269 [label="entropy = 0.0\nsamples = 5\nvalue = [5, 0]"] ;
268 -> 269 ;
270 [label="age <= 1.465\nentropy = 0.918\nsamples = 3\nvalue = [1, 2]"] ;
268 -> 270 ;
271 [label="entropy = 0.0\nsamples = 1\nvalue = [1, 0]"] ;
270 -> 271 ;
272 [label="entropy = 0.0\nsamples = 2\nvalue = [0, 2]"] ;
270 -> 272 ;
273 [label="entropy = 0.0\nsamples = 5\nvalue = [0, 5]"] ;
261 -> 273 ;
274 [label="entropy = 0.0\nsamples = 8\nvalue = [0, 8]"] ;
194 -> 274 ;
}