digraph Tree {
node [shape=box, fontname="helvetica"] ;
edge [fontname="helvetica"] ;
0 [label="age <= 0.296\nentropy = 1.0\nsamples = 2240\nvalue = [1120, 1120]"] ;
1 [label="age <= -0.319\nentropy = 0.319\nsamples = 744\nvalue = [701, 43]"] ;
0 -> 1 [labeldistance=2.5, labelangle=45, headlabel="True"] ;
2 [label="avg_glucose_level <= 58.089\nentropy = 0.1\nsamples = 462\nvalue = [456, 6]"] ;
1 -> 2 ;
3 [label="avg_glucose_level <= 57.695\nentropy = 0.89\nsamples = 13\nvalue = [9, 4]"] ;
2 -> 3 ;
4 [label="entropy = 0.0\nsamples = 7\nvalue = [7, 0]"] ;
3 -> 4 ;
5 [label="smoking_status_smokes <= 0.17\nentropy = 0.918\nsamples = 6\nvalue = [2, 4]"] ;
3 -> 5 ;
6 [label="avg_glucose_level <= 57.945\nentropy = 0.918\nsamples = 3\nvalue = [2, 1]"] ;
5 -> 6 ;
7 [label="entropy = 0.0\nsamples = 1\nvalue = [0, 1]"] ;
6 -> 7 ;
8 [label="entropy = 0.0\nsamples = 2\nvalue = [2, 0]"] ;
6 -> 8 ;
9 [label="entropy = 0.0\nsamples = 3\nvalue = [0, 3]"] ;
5 -> 9 ;
10 [label="bmi <= -0.007\nentropy = 0.041\nsamples = 449\nvalue = [447, 2]"] ;
2 -> 10 ;
11 [label="entropy = 0.0\nsamples = 333\nvalue = [333, 0]"] ;
10 -> 11 ;
12 [label="avg_glucose_level <= 76.195\nentropy = 0.126\nsamples = 116\nvalue = [114, 2]"] ;
10 -> 12 ;
13 [label="avg_glucose_level <= 75.37\nentropy = 0.345\nsamples = 31\nvalue = [29, 2]"] ;
12 -> 13 ;
14 [label="bmi_missing <= 0.5\nentropy = 0.211\nsamples = 30\nvalue = [29, 1]"] ;
13 -> 14 ;
15 [label="entropy = 0.0\nsamples = 27\nvalue = [27, 0]"] ;
14 -> 15 ;
16 [label="avg_glucose_level <= 71.695\nentropy = 0.918\nsamples = 3\nvalue = [2, 1]"] ;
14 -> 16 ;
17 [label="entropy = 0.0\nsamples = 1\nvalue = [0, 1]"] ;
16 -> 17 ;
18 [label="entropy = 0.0\nsamples = 2\nvalue = [2, 0]"] ;
16 -> 18 ;
19 [label="entropy = 0.0\nsamples = 1\nvalue = [0, 1]"] ;
13 -> 19 ;
20 [label="entropy = 0.0\nsamples = 85\nvalue = [85, 0]"] ;
12 -> 20 ;
21 [label="avg_glucose_level <= 65.567\nentropy = 0.561\nsamples = 282\nvalue = [245, 37]"] ;
1 -> 21 ;
22 [label="bmi <= -0.125\nentropy = 0.981\nsamples = 31\nvalue = [18, 13]"] ;
21 -> 22 ;
23 [label="entropy = 0.0\nsamples = 10\nvalue = [10, 0]"] ;
22 -> 23 ;
24 [label="gender <= 0.5\nentropy = 0.959\nsamples = 21\nvalue = [8, 13]"] ;
22 -> 24 ;
25 [label="smoking_status_smokes <= 0.963\nentropy = 0.722\nsamples = 15\nvalue = [3, 12]"] ;
24 -> 25 ;
26 [label="bmi <= 1.306\nentropy = 0.414\nsamples = 12\nvalue = [1, 11]"] ;
25 -> 26 ;
27 [label="entropy = 0.0\nsamples = 11\nvalue = [0, 11]"] ;
26 -> 27 ;
28 [label="entropy = 0.0\nsamples = 1\nvalue = [1, 0]"] ;
26 -> 28 ;
29 [label="hypertension <= 0.5\nentropy = 0.918\nsamples = 3\nvalue = [2, 1]"] ;
25 -> 29 ;
30 [label="entropy = 0.0\nsamples = 2\nvalue = [2, 0]"] ;
29 -> 30 ;
31 [label="entropy = 0.0\nsamples = 1\nvalue = [0, 1]"] ;
29 -> 31 ;
32 [label="bmi <= 0.072\nentropy = 0.65\nsamples = 6\nvalue = [5, 1]"] ;
24 -> 32 ;
33 [label="entropy = 0.0\nsamples = 1\nvalue = [0, 1]"] ;
32 -> 33 ;
34 [label="entropy = 0.0\nsamples = 5\nvalue = [5, 0]"] ;
32 -> 34 ;
35 [label="ever_married <= 0.5\nentropy = 0.455\nsamples = 251\nvalue = [227, 24]"] ;
21 -> 35 ;
36 [label="work_type_Self-employed <= 0.208\nentropy = 0.855\nsamples = 50\nvalue = [36, 14]"] ;
35 -> 36 ;
37 [label="bmi <= -0.238\nentropy = 0.61\nsamples = 40\nvalue = [34, 6]"] ;
36 -> 37 ;
38 [label="entropy = 0.0\nsamples = 19\nvalue = [19, 0]"] ;
37 -> 38 ;
39 [label="age <= 0.119\nentropy = 0.863\nsamples = 21\nvalue = [15, 6]"] ;
37 -> 39 ;
40 [label="work_type_children <= 0.138\nentropy = 0.523\nsamples = 17\nvalue = [15, 2]"] ;
39 -> 40 ;
41 [label="entropy = 0.0\nsamples = 15\nvalue = [15, 0]"] ;
40 -> 41 ;
42 [label="entropy = 0.0\nsamples = 2\nvalue = [0, 2]"] ;
40 -> 42 ;
43 [label="entropy = 0.0\nsamples = 4\nvalue = [0, 4]"] ;
39 -> 43 ;
44 [label="avg_glucose_level <= 85.421\nentropy = 0.722\nsamples = 10\nvalue = [2, 8]"] ;
36 -> 44 ;
45 [label="entropy = 0.0\nsamples = 8\nvalue = [0, 8]"] ;
44 -> 45 ;
46 [label="entropy = 0.0\nsamples = 2\nvalue = [2, 0]"] ;
44 -> 46 ;
47 [label="smoking_status_formerly smoked <= 0.005\nentropy = 0.285\nsamples = 201\nvalue = [191, 10]"] ;
35 -> 47 ;
48 [label="age <= 0.185\nentropy = 0.141\nsamples = 151\nvalue = [148, 3]"] ;
47 -> 48 ;
49 [label="entropy = 0.0\nsamples = 111\nvalue = [111, 0]"] ;
48 -> 49 ;
50 [label="avg_glucose_level <= 157.275\nentropy = 0.384\nsamples = 40\nvalue = [37, 3]"] ;
48 -> 50 ;
51 [label="bmi <= -1.0\nentropy = 0.183\nsamples = 36\nvalue = [35, 1]"] ;
50 -> 51 ;
52 [label="entropy = 0.0\nsamples = 1\nvalue = [0, 1]"] ;
51 -> 52 ;
53 [label="entropy = 0.0\nsamples = 35\nvalue = [35, 0]"] ;
51 -> 53 ;
54 [label="avg_glucose_level <= 181.695\nentropy = 1.0\nsamples = 4\nvalue = [2, 2]"] ;
50 -> 54 ;
55 [label="entropy = 0.0\nsamples = 2\nvalue = [0, 2]"] ;
54 -> 55 ;
56 [label="entropy = 0.0\nsamples = 2\nvalue = [2, 0]"] ;
54 -> 56 ;
57 [label="smoking_status_formerly smoked <= 0.984\nentropy = 0.584\nsamples = 50\nvalue = [43, 7]"] ;
47 -> 57 ;
58 [label="entropy = 0.0\nsamples = 4\nvalue = [0, 4]"] ;
57 -> 58 ;
59 [label="Residence_type <= 0.5\nentropy = 0.348\nsamples = 46\nvalue = [43, 3]"] ;
57 -> 59 ;
60 [label="avg_glucose_level <= 92.385\nentropy = 0.696\nsamples = 16\nvalue = [13, 3]"] ;
59 -> 60 ;
61 [label="entropy = 0.0\nsamples = 10\nvalue = [10, 0]"] ;
60 -> 61 ;
62 [label="avg_glucose_level <= 102.033\nentropy = 1.0\nsamples = 6\nvalue = [3, 3]"] ;
60 -> 62 ;
63 [label="entropy = 0.0\nsamples = 3\nvalue = [0, 3]"] ;
62 -> 63 ;
64 [label="entropy = 0.0\nsamples = 3\nvalue = [3, 0]"] ;
62 -> 64 ;
65 [label="entropy = 0.0\nsamples = 30\nvalue = [30, 0]"] ;
59 -> 65 ;
66 [label="work_type_Private <= 0.0\nentropy = 0.856\nsamples = 1496\nvalue = [419, 1077]"] ;
0 -> 66 [labeldistance=2.5, labelangle=-45, headlabel="False"] ;
67 [label="age <= 0.79\nentropy = 0.998\nsamples = 438\nvalue = [208, 230]"] ;
66 -> 67 ;
68 [label="gender <= 0.5\nentropy = 0.807\nsamples = 105\nvalue = [79, 26]"] ;
67 -> 68 ;
69 [label="avg_glucose_level <= 156.479\nentropy = 0.933\nsamples = 63\nvalue = [41, 22]"] ;
68 -> 69 ;
70 [label="work_type_children <= 0.051\nentropy = 0.787\nsamples = 51\nvalue = [39, 12]"] ;
69 -> 70 ;
71 [label="Residence_type <= 0.5\nentropy = 0.696\nsamples = 48\nvalue = [39, 9]"] ;
70 -> 71 ;
72 [label="work_type_Self-employed <= 0.046\nentropy = 0.934\nsamples = 20\nvalue = [13, 7]"] ;
71 -> 72 ;
73 [label="hypertension <= 0.5\nentropy = 0.65\nsamples = 12\nvalue = [10, 2]"] ;
72 -> 73 ;
74 [label="heart_disease <= 0.5\nentropy = 0.439\nsamples = 11\nvalue = [10, 1]"] ;
73 -> 74 ;
75 [label="entropy = 0.0\nsamples = 10\nvalue = [10, 0]"] ;
74 -> 75 ;
76 [label="entropy = 0.0\nsamples = 1\nvalue = [0, 1]"] ;
74 -> 76 ;
77 [label="entropy = 0.0\nsamples = 1\nvalue = [0, 1]"] ;
73 -> 77 ;
78 [label="avg_glucose_level <= 84.868\nentropy = 0.954\nsamples = 8\nvalue = [3, 5]"] ;
72 -> 78 ;
79 [label="work_type_Self-employed <= 0.738\nentropy = 0.811\nsamples = 4\nvalue = [3, 1]"] ;
78 -> 79 ;
80 [label="entropy = 0.0\nsamples = 1\nvalue = [0, 1]"] ;
79 -> 80 ;
81 [label="entropy = 0.0\nsamples = 3\nvalue = [3, 0]"] ;
79 -> 81 ;
82 [label="entropy = 0.0\nsamples = 4\nvalue = [0, 4]"] ;
78 -> 82 ;
83 [label="bmi <= -0.019\nentropy = 0.371\nsamples = 28\nvalue = [26, 2]"] ;
71 -> 83 ;
84 [label="bmi <= -0.341\nentropy = 0.764\nsamples = 9\nvalue = [7, 2]"] ;
83 -> 84 ;
85 [label="entropy = 0.0\nsamples = 7\nvalue = [7, 0]"] ;
84 -> 85 ;
86 [label="entropy = 0.0\nsamples = 2\nvalue = [0, 2]"] ;
84 -> 86 ;
87 [label="entropy = 0.0\nsamples = 19\nvalue = [19, 0]"] ;
83 -> 87 ;
88 [label="entropy = 0.0\nsamples = 3\nvalue = [0, 3]"] ;
70 -> 88 ;
89 [label="avg_glucose_level <= 203.605\nentropy = 0.65\nsamples = 12\nvalue = [2, 10]"] ;
69 -> 89 ;
90 [label="entropy = 0.0\nsamples = 9\nvalue = [0, 9]"] ;
89 -> 90 ;
91 [label="Residence_type <= 0.5\nentropy = 0.918\nsamples = 3\nvalue = [2, 1]"] ;
89 -> 91 ;
92 [label="entropy = 0.0\nsamples = 2\nvalue = [2, 0]"] ;
91 -> 92 ;
93 [label="entropy = 0.0\nsamples = 1\nvalue = [0, 1]"] ;
91 -> 93 ;
94 [label="hypertension <= 0.5\nentropy = 0.454\nsamples = 42\nvalue = [38, 4]"] ;
68 -> 94 ;
95 [label="smoking_status_smokes <= 0.5\nentropy = 0.183\nsamples = 36\nvalue = [35, 1]"] ;
94 -> 95 ;
96 [label="entropy = 0.0\nsamples = 33\nvalue = [33, 0]"] ;
95 -> 96 ;
97 [label="bmi <= 0.371\nentropy = 0.918\nsamples = 3\nvalue = [2, 1]"] ;
95 -> 97 ;
98 [label="entropy = 0.0\nsamples = 1\nvalue = [0, 1]"] ;
97 -> 98 ;
99 [label="entropy = 0.0\nsamples = 2\nvalue = [2, 0]"] ;
97 -> 99 ;
100 [label="bmi <= -0.104\nentropy = 1.0\nsamples = 6\nvalue = [3, 3]"] ;
94 -> 100 ;
101 [label="entropy = 0.0\nsamples = 3\nvalue = [0, 3]"] ;
100 -> 101 ;
102 [label="entropy = 0.0\nsamples = 3\nvalue = [3, 0]"] ;
100 -> 102 ;
103 [label="avg_glucose_level <= 218.995\nentropy = 0.963\nsamples = 333\nvalue = [129, 204]"] ;
67 -> 103 ;
104 [label="avg_glucose_level <= 106.17\nentropy = 0.94\nsamples = 314\nvalue = [112, 202]"] ;
103 -> 104 ;
105 [label="work_type_Self-employed <= 0.093\nentropy = 0.997\nsamples = 164\nvalue = [77, 87]"] ;
104 -> 105 ;
106 [label="bmi <= 0.071\nentropy = 0.555\nsamples = 31\nvalue = [27, 4]"] ;
105 -> 106 ;
107 [label="ever_married <= 0.5\nentropy = 0.89\nsamples = 13\nvalue = [9, 4]"] ;
106 -> 107 ;
108 [label="entropy = 0.0\nsamples = 2\nvalue = [0, 2]"] ;
107 -> 108 ;
109 [label="bmi <= -0.013\nentropy = 0.684\nsamples = 11\nvalue = [9, 2]"] ;
107 -> 109 ;
110 [label="avg_glucose_level <= 99.145\nentropy = 0.469\nsamples = 10\nvalue = [9, 1]"] ;
109 -> 110 ;
111 [label="entropy = 0.0\nsamples = 9\nvalue = [9, 0]"] ;
110 -> 111 ;
112 [label="entropy = 0.0\nsamples = 1\nvalue = [0, 1]"] ;
110 -> 112 ;
113 [label="entropy = 0.0\nsamples = 1\nvalue = [0, 1]"] ;
109 -> 113 ;
114 [label="entropy = 0.0\nsamples = 18\nvalue = [18, 0]"] ;
106 -> 114 ;
115 [label="work_type_Self-employed <= 0.997\nentropy = 0.955\nsamples = 133\nvalue = [50, 83]"] ;
105 -> 115 ;
116 [label="entropy = 0.0\nsamples = 24\nvalue = [0, 24]"] ;
115 -> 116 ;
117 [label="Residence_type <= 0.5\nentropy = 0.995\nsamples = 109\nvalue = [50, 59]"] ;
115 -> 117 ;
118 [label="age <= 1.364\nentropy = 0.869\nsamples = 62\nvalue = [18, 44]"] ;
117 -> 118 ;
119 [label="smoking_status_never smoked <= 0.874\nentropy = 0.918\nsamples = 18\nvalue = [12, 6]"] ;
118 -> 119 ;
120 [label="smoking_status_formerly smoked <= 0.902\nentropy = 0.996\nsamples = 13\nvalue = [7, 6]"] ;
119 -> 120 ;
121 [label="avg_glucose_level <= 93.849\nentropy = 0.918\nsamples = 9\nvalue = [3, 6]"] ;
120 -> 121 ;
122 [label="smoking_status_smokes <= 0.925\nentropy = 0.592\nsamples = 7\nvalue = [1, 6]"] ;
121 -> 122 ;
123 [label="entropy = 0.0\nsamples = 5\nvalue = [0, 5]"] ;
122 -> 123 ;
124 [label="age <= 0.849\nentropy = 1.0\nsamples = 2\nvalue = [1, 1]"] ;
122 -> 124 ;
125 [label="entropy = 0.0\nsamples = 1\nvalue = [0, 1]"] ;
124 -> 125 ;
126 [label="entropy = 0.0\nsamples = 1\nvalue = [1, 0]"] ;
124 -> 126 ;
127 [label="entropy = 0.0\nsamples = 2\nvalue = [2, 0]"] ;
121 -> 127 ;
128 [label="entropy = 0.0\nsamples = 4\nvalue = [4, 0]"] ;
120 -> 128 ;
129 [label="entropy = 0.0\nsamples = 5\nvalue = [5, 0]"] ;
119 -> 129 ;
130 [label="avg_glucose_level <= 78.115\nentropy = 0.575\nsamples = 44\nvalue = [6, 38]"] ;
118 -> 130 ;
131 [label="bmi <= 0.013\nentropy = 0.971\nsamples = 10\nvalue = [4, 6]"] ;
130 -> 131 ;
132 [label="entropy = 0.0\nsamples = 5\nvalue = [0, 5]"] ;
131 -> 132 ;
133 [label="age <= 1.495\nentropy = 0.722\nsamples = 5\nvalue = [4, 1]"] ;
131 -> 133 ;
134 [label="entropy = 0.0\nsamples = 1\nvalue = [0, 1]"] ;
133 -> 134 ;
135 [label="entropy = 0.0\nsamples = 4\nvalue = [4, 0]"] ;
133 -> 135 ;
136 [label="age <= 1.662\nentropy = 0.323\nsamples = 34\nvalue = [2, 32]"] ;
130 -> 136 ;
137 [label="entropy = 0.0\nsamples = 30\nvalue = [0, 30]"] ;
136 -> 137 ;
138 [label="avg_glucose_level <= 82.375\nentropy = 1.0\nsamples = 4\nvalue = [2, 2]"] ;
136 -> 138 ;
139 [label="entropy = 0.0\nsamples = 1\nvalue = [0, 1]"] ;
138 -> 139 ;
140 [label="bmi <= 0.195\nentropy = 0.918\nsamples = 3\nvalue = [2, 1]"] ;
138 -> 140 ;
141 [label="entropy = 0.0\nsamples = 2\nvalue = [2, 0]"] ;
140 -> 141 ;
142 [label="entropy = 0.0\nsamples = 1\nvalue = [0, 1]"] ;
140 -> 142 ;
143 [label="bmi <= -0.312\nentropy = 0.903\nsamples = 47\nvalue = [32, 15]"] ;
117 -> 143 ;
144 [label="entropy = 0.0\nsamples = 15\nvalue = [15, 0]"] ;
143 -> 144 ;
145 [label="smoking_status_never smoked <= 0.198\nentropy = 0.997\nsamples = 32\nvalue = [17, 15]"] ;
143 -> 145 ;
146 [label="bmi <= 0.741\nentropy = 0.874\nsamples = 17\nvalue = [12, 5]"] ;
145 -> 146 ;
147 [label="age <= 1.229\nentropy = 0.98\nsamples = 12\nvalue = [7, 5]"] ;
146 -> 147 ;
148 [label="smoking_status_formerly smoked <= 0.5\nentropy = 0.918\nsamples = 6\nvalue = [2, 4]"] ;
147 -> 148 ;
149 [label="entropy = 0.0\nsamples = 2\nvalue = [0, 2]"] ;
148 -> 149 ;
150 [label="avg_glucose_level <= 69.905\nentropy = 1.0\nsamples = 4\nvalue = [2, 2]"] ;
148 -> 150 ;
151 [label="entropy = 0.0\nsamples = 1\nvalue = [0, 1]"] ;
150 -> 151 ;
152 [label="bmi <= 0.344\nentropy = 0.918\nsamples = 3\nvalue = [2, 1]"] ;
150 -> 152 ;
153 [label="entropy = 0.0\nsamples = 2\nvalue = [2, 0]"] ;
152 -> 153 ;
154 [label="entropy = 0.0\nsamples = 1\nvalue = [0, 1]"] ;
152 -> 154 ;
155 [label="gender <= 0.5\nentropy = 0.65\nsamples = 6\nvalue = [5, 1]"] ;
147 -> 155 ;
156 [label="entropy = 0.0\nsamples = 5\nvalue = [5, 0]"] ;
155 -> 156 ;
157 [label="entropy = 0.0\nsamples = 1\nvalue = [0, 1]"] ;
155 -> 157 ;
158 [label="entropy = 0.0\nsamples = 5\nvalue = [5, 0]"] ;
146 -> 158 ;
159 [label="bmi <= 0.55\nentropy = 0.918\nsamples = 15\nvalue = [5, 10]"] ;
145 -> 159 ;
160 [label="avg_glucose_level <= 78.69\nentropy = 0.954\nsamples = 8\nvalue = [5, 3]"] ;
159 -> 160 ;
161 [label="entropy = 0.0\nsamples = 4\nvalue = [4, 0]"] ;
160 -> 161 ;
162 [label="age <= 1.051\nentropy = 0.811\nsamples = 4\nvalue = [1, 3]"] ;
160 -> 162 ;
163 [label="entropy = 0.0\nsamples = 1\nvalue = [1, 0]"] ;
162 -> 163 ;
164 [label="entropy = 0.0\nsamples = 3\nvalue = [0, 3]"] ;
162 -> 164 ;
165 [label="entropy = 0.0\nsamples = 7\nvalue = [0, 7]"] ;
159 -> 165 ;
166 [label="work_type_Self-employed <= 0.977\nentropy = 0.784\nsamples = 150\nvalue = [35, 115]"] ;
104 -> 166 ;
167 [label="work_type_Self-employed <= 0.015\nentropy = 0.424\nsamples = 81\nvalue = [7, 74]"] ;
166 -> 167 ;
168 [label="bmi <= -0.02\nentropy = 0.826\nsamples = 27\nvalue = [7, 20]"] ;
167 -> 168 ;
169 [label="gender <= 0.5\nentropy = 0.985\nsamples = 14\nvalue = [6, 8]"] ;
168 -> 169 ;
170 [label="hypertension <= 0.5\nentropy = 0.845\nsamples = 11\nvalue = [3, 8]"] ;
169 -> 170 ;
171 [label="avg_glucose_level <= 131.935\nentropy = 0.985\nsamples = 7\nvalue = [3, 4]"] ;
170 -> 171 ;
172 [label="entropy = 0.0\nsamples = 3\nvalue = [0, 3]"] ;
171 -> 172 ;
173 [label="smoking_status_smokes <= 0.5\nentropy = 0.811\nsamples = 4\nvalue = [3, 1]"] ;
171 -> 173 ;
174 [label="entropy = 0.0\nsamples = 3\nvalue = [3, 0]"] ;
173 -> 174 ;
175 [label="entropy = 0.0\nsamples = 1\nvalue = [0, 1]"] ;
173 -> 175 ;
176 [label="entropy = 0.0\nsamples = 4\nvalue = [0, 4]"] ;
170 -> 176 ;
177 [label="entropy = 0.0\nsamples = 3\nvalue = [3, 0]"] ;
169 -> 177 ;
178 [label="bmi <= 0.533\nentropy = 0.391\nsamples = 13\nvalue = [1, 12]"] ;
168 -> 178 ;
179 [label="entropy = 0.0\nsamples = 11\nvalue = [0, 11]"] ;
178 -> 179 ;
180 [label="age <= 1.007\nentropy = 1.0\nsamples = 2\nvalue = [1, 1]"] ;
178 -> 180 ;
181 [label="entropy = 0.0\nsamples = 1\nvalue = [0, 1]"] ;
180 -> 181 ;
182 [label="entropy = 0.0\nsamples = 1\nvalue = [1, 0]"] ;
180 -> 182 ;
183 [label="entropy = 0.0\nsamples = 54\nvalue = [0, 54]"] ;
167 -> 183 ;
184 [label="avg_glucose_level <= 197.005\nentropy = 0.974\nsamples = 69\nvalue = [28, 41]"] ;
166 -> 184 ;
185 [label="avg_glucose_level <= 192.645\nentropy = 0.907\nsamples = 59\nvalue = [19, 40]"] ;
184 -> 185 ;
186 [label="smoking_status_formerly smoked <= 0.041\nentropy = 0.996\nsamples = 41\nvalue = [19, 22]"] ;
185 -> 186 ;
187 [label="age <= 1.347\nentropy = 0.887\nsamples = 23\nvalue = [16, 7]"] ;
186 -> 187 ;
188 [label="age <= 0.904\nentropy = 0.391\nsamples = 13\nvalue = [12, 1]"] ;
187 -> 188 ;
189 [label="entropy = 0.0\nsamples = 1\nvalue = [0, 1]"] ;
188 -> 189 ;
190 [label="entropy = 0.0\nsamples = 12\nvalue = [12, 0]"] ;
188 -> 190 ;
191 [label="hypertension <= 0.5\nentropy = 0.971\nsamples = 10\nvalue = [4, 6]"] ;
187 -> 191 ;
192 [label="bmi <= 0.123\nentropy = 0.918\nsamples = 6\nvalue = [4, 2]"] ;
191 -> 192 ;
193 [label="avg_glucose_level <= 133.665\nentropy = 0.918\nsamples = 3\nvalue = [1, 2]"] ;
192 -> 193 ;
194 [label="entropy = 0.0\nsamples = 2\nvalue = [0, 2]"] ;
193 -> 194 ;
195 [label="entropy = 0.0\nsamples = 1\nvalue = [1, 0]"] ;
193 -> 195 ;
196 [label="entropy = 0.0\nsamples = 3\nvalue = [3, 0]"] ;
192 -> 196 ;
197 [label="entropy = 0.0\nsamples = 4\nvalue = [0, 4]"] ;
191 -> 197 ;
198 [label="gender <= 0.5\nentropy = 0.65\nsamples = 18\nvalue = [3, 15]"] ;
186 -> 198 ;
199 [label="age <= 1.496\nentropy = 1.0\nsamples = 6\nvalue = [3, 3]"] ;
198 -> 199 ;
200 [label="heart_disease <= 0.5\nentropy = 0.811\nsamples = 4\nvalue = [1, 3]"] ;
199 -> 200 ;
201 [label="entropy = 0.0\nsamples = 3\nvalue = [0, 3]"] ;
200 -> 201 ;
202 [label="entropy = 0.0\nsamples = 1\nvalue = [1, 0]"] ;
200 -> 202 ;
203 [label="entropy = 0.0\nsamples = 2\nvalue = [2, 0]"] ;
199 -> 203 ;
204 [label="entropy = 0.0\nsamples = 12\nvalue = [0, 12]"] ;
198 -> 204 ;
205 [label="entropy = 0.0\nsamples = 18\nvalue = [0, 18]"] ;
185 -> 205 ;
206 [label="avg_glucose_level <= 217.42\nentropy = 0.469\nsamples = 10\nvalue = [9, 1]"] ;
184 -> 206 ;
207 [label="entropy = 0.0\nsamples = 9\nvalue = [9, 0]"] ;
206 -> 207 ;
208 [label="entropy = 0.0\nsamples = 1\nvalue = [0, 1]"] ;
206 -> 208 ;
209 [label="bmi <= -0.06\nentropy = 0.485\nsamples = 19\nvalue = [17, 2]"] ;
103 -> 209 ;
210 [label="bmi <= -0.377\nentropy = 0.971\nsamples = 5\nvalue = [3, 2]"] ;
209 -> 210 ;
211 [label="entropy = 0.0\nsamples = 2\nvalue = [2, 0]"] ;
210 -> 211 ;
212 [label="age <= 1.459\nentropy = 0.918\nsamples = 3\nvalue = [1, 2]"] ;
210 -> 212 ;
213 [label="entropy = 0.0\nsamples = 1\nvalue = [1, 0]"] ;
212 -> 213 ;
214 [label="entropy = 0.0\nsamples = 2\nvalue = [0, 2]"] ;
212 -> 214 ;
215 [label="entropy = 0.0\nsamples = 14\nvalue = [14, 0]"] ;
209 -> 215 ;
216 [label="work_type_Private <= 0.999\nentropy = 0.721\nsamples = 1058\nvalue = [211, 847]"] ;
66 -> 216 ;
217 [label="entropy = 0.0\nsamples = 403\nvalue = [0, 403]"] ;
216 -> 217 ;
218 [label="age <= 1.01\nentropy = 0.907\nsamples = 655\nvalue = [211, 444]"] ;
216 -> 218 ;
219 [label="smoking_status_never smoked <= 0.996\nentropy = 0.999\nsamples = 295\nvalue = [141, 154]"] ;
218 -> 219 ;
220 [label="smoking_status_never smoked <= 0.007\nentropy = 0.953\nsamples = 225\nvalue = [84, 141]"] ;
219 -> 220 ;
221 [label="smoking_status_formerly smoked <= 0.88\nentropy = 0.997\nsamples = 179\nvalue = [84, 95]"] ;
220 -> 221 ;
222 [label="smoking_status_formerly smoked <= 0.001\nentropy = 0.936\nsamples = 125\nvalue = [44, 81]"] ;
221 -> 222 ;
223 [label="age <= 0.581\nentropy = 0.973\nsamples = 109\nvalue = [44, 65]"] ;
222 -> 223 ;
224 [label="age <= 0.332\nentropy = 0.828\nsamples = 23\nvalue = [17, 6]"] ;
223 -> 224 ;
225 [label="entropy = 0.0\nsamples = 2\nvalue = [0, 2]"] ;
224 -> 225 ;
226 [label="bmi <= 0.189\nentropy = 0.702\nsamples = 21\nvalue = [17, 4]"] ;
224 -> 226 ;
227 [label="bmi <= -0.023\nentropy = 0.918\nsamples = 12\nvalue = [8, 4]"] ;
226 -> 227 ;
228 [label="age <= 0.536\nentropy = 0.503\nsamples = 9\nvalue = [8, 1]"] ;
227 -> 228 ;
229 [label="entropy = 0.0\nsamples = 7\nvalue = [7, 0]"] ;
228 -> 229 ;
230 [label="bmi <= -0.292\nentropy = 1.0\nsamples = 2\nvalue = [1, 1]"] ;
228 -> 230 ;
231 [label="entropy = 0.0\nsamples = 1\nvalue = [1, 0]"] ;
230 -> 231 ;
232 [label="entropy = 0.0\nsamples = 1\nvalue = [0, 1]"] ;
230 -> 232 ;
233 [label="entropy = 0.0\nsamples = 3\nvalue = [0, 3]"] ;
227 -> 233 ;
234 [label="entropy = 0.0\nsamples = 9\nvalue = [9, 0]"] ;
226 -> 234 ;
235 [label="bmi <= -0.492\nentropy = 0.898\nsamples = 86\nvalue = [27, 59]"] ;
223 -> 235 ;
236 [label="smoking_status_smokes <= 0.5\nentropy = 0.592\nsamples = 7\nvalue = [6, 1]"] ;
235 -> 236 ;
237 [label="entropy = 0.0\nsamples = 5\nvalue = [5, 0]"] ;
236 -> 237 ;
238 [label="bmi <= -0.617\nentropy = 1.0\nsamples = 2\nvalue = [1, 1]"] ;
236 -> 238 ;
239 [label="entropy = 0.0\nsamples = 1\nvalue = [0, 1]"] ;
238 -> 239 ;
240 [label="entropy = 0.0\nsamples = 1\nvalue = [1, 0]"] ;
238 -> 240 ;
241 [label="hypertension <= 0.5\nentropy = 0.835\nsamples = 79\nvalue = [21, 58]"] ;
235 -> 241 ;
242 [label="age <= 1.006\nentropy = 0.759\nsamples = 73\nvalue = [16, 57]"] ;
241 -> 242 ;
243 [label="avg_glucose_level <= 187.56\nentropy = 0.692\nsamples = 70\nvalue = [13, 57]"] ;
242 -> 243 ;
244 [label="avg_glucose_level <= 119.881\nentropy = 0.811\nsamples = 52\nvalue = [13, 39]"] ;
243 -> 244 ;
245 [label="avg_glucose_level <= 96.209\nentropy = 0.615\nsamples = 46\nvalue = [7, 39]"] ;
244 -> 245 ;
246 [label="bmi_missing <= 0.5\nentropy = 0.855\nsamples = 25\nvalue = [7, 18]"] ;
245 -> 246 ;
247 [label="bmi <= 0.182\nentropy = 0.964\nsamples = 18\nvalue = [7, 11]"] ;
246 -> 247 ;
248 [label="entropy = 0.0\nsamples = 5\nvalue = [5, 0]"] ;
247 -> 248 ;
249 [label="age <= 0.723\nentropy = 0.619\nsamples = 13\nvalue = [2, 11]"] ;
247 -> 249 ;
250 [label="entropy = 0.0\nsamples = 10\nvalue = [0, 10]"] ;
249 -> 250 ;
251 [label="bmi <= 0.299\nentropy = 0.918\nsamples = 3\nvalue = [2, 1]"] ;
249 -> 251 ;
252 [label="entropy = 0.0\nsamples = 1\nvalue = [0, 1]"] ;
251 -> 252 ;
253 [label="entropy = 0.0\nsamples = 2\nvalue = [2, 0]"] ;
251 -> 253 ;
254 [label="entropy = 0.0\nsamples = 7\nvalue = [0, 7]"] ;
246 -> 254 ;
255 [label="entropy = 0.0\nsamples = 21\nvalue = [0, 21]"] ;
245 -> 255 ;
256 [label="entropy = 0.0\nsamples = 6\nvalue = [6, 0]"] ;
244 -> 256 ;
257 [label="entropy = 0.0\nsamples = 18\nvalue = [0, 18]"] ;
243 -> 257 ;
258 [label="entropy = 0.0\nsamples = 3\nvalue = [3, 0]"] ;
242 -> 258 ;
259 [label="age <= 0.674\nentropy = 0.65\nsamples = 6\nvalue = [5, 1]"] ;
241 -> 259 ;
260 [label="entropy = 0.0\nsamples = 1\nvalue = [0, 1]"] ;
259 -> 260 ;
261 [label="entropy = 0.0\nsamples = 5\nvalue = [5, 0]"] ;
259 -> 261 ;
262 [label="entropy = 0.0\nsamples = 16\nvalue = [0, 16]"] ;
222 -> 262 ;
263 [label="avg_glucose_level <= 99.784\nentropy = 0.826\nsamples = 54\nvalue = [40, 14]"] ;
221 -> 263 ;
264 [label="entropy = 0.0\nsamples = 23\nvalue = [23, 0]"] ;
263 -> 264 ;
265 [label="avg_glucose_level <= 208.56\nentropy = 0.993\nsamples = 31\nvalue = [17, 14]"] ;
263 -> 265 ;
266 [label="avg_glucose_level <= 133.305\nentropy = 0.99\nsamples = 25\nvalue = [11, 14]"] ;
265 -> 266 ;
267 [label="avg_glucose_level <= 102.498\nentropy = 0.89\nsamples = 13\nvalue = [9, 4]"] ;
266 -> 267 ;
268 [label="entropy = 0.0\nsamples = 4\nvalue = [0, 4]"] ;
267 -> 268 ;
269 [label="entropy = 0.0\nsamples = 9\nvalue = [9, 0]"] ;
267 -> 269 ;
270 [label="bmi <= 0.801\nentropy = 0.65\nsamples = 12\nvalue = [2, 10]"] ;
266 -> 270 ;
271 [label="entropy = 0.0\nsamples = 6\nvalue = [0, 6]"] ;
270 -> 271 ;
272 [label="bmi <= 0.84\nentropy = 0.918\nsamples = 6\nvalue = [2, 4]"] ;
270 -> 272 ;
273 [label="entropy = 0.0\nsamples = 1\nvalue = [1, 0]"] ;
272 -> 273 ;
274 [label="age <= 0.985\nentropy = 0.722\nsamples = 5\nvalue = [1, 4]"] ;
272 -> 274 ;
275 [label="entropy = 0.0\nsamples = 4\nvalue = [0, 4]"] ;
274 -> 275 ;
276 [label="entropy = 0.0\nsamples = 1\nvalue = [1, 0]"] ;
274 -> 276 ;
277 [label="entropy = 0.0\nsamples = 6\nvalue = [6, 0]"] ;
265 -> 277 ;
278 [label="entropy = 0.0\nsamples = 46\nvalue = [0, 46]"] ;
220 -> 278 ;
279 [label="ever_married <= 0.5\nentropy = 0.692\nsamples = 70\nvalue = [57, 13]"] ;
219 -> 279 ;
280 [label="avg_glucose_level <= 102.285\nentropy = 0.971\nsamples = 5\nvalue = [2, 3]"] ;
279 -> 280 ;
281 [label="entropy = 0.0\nsamples = 3\nvalue = [0, 3]"] ;
280 -> 281 ;
282 [label="entropy = 0.0\nsamples = 2\nvalue = [2, 0]"] ;
280 -> 282 ;
283 [label="avg_glucose_level <= 75.672\nentropy = 0.619\nsamples = 65\nvalue = [55, 10]"] ;
279 -> 283 ;
284 [label="avg_glucose_level <= 71.12\nentropy = 0.954\nsamples = 16\nvalue = [10, 6]"] ;
283 -> 284 ;
285 [label="Residence_type <= 0.5\nentropy = 0.779\nsamples = 13\nvalue = [10, 3]"] ;
284 -> 285 ;
286 [label="bmi <= -0.393\nentropy = 1.0\nsamples = 6\nvalue = [3, 3]"] ;
285 -> 286 ;
287 [label="entropy = 0.0\nsamples = 2\nvalue = [2, 0]"] ;
286 -> 287 ;
288 [label="age <= 0.433\nentropy = 0.811\nsamples = 4\nvalue = [1, 3]"] ;
286 -> 288 ;
289 [label="entropy = 0.0\nsamples = 1\nvalue = [1, 0]"] ;
288 -> 289 ;
290 [label="entropy = 0.0\nsamples = 3\nvalue = [0, 3]"] ;
288 -> 290 ;
291 [label="entropy = 0.0\nsamples = 7\nvalue = [7, 0]"] ;
285 -> 291 ;
292 [label="entropy = 0.0\nsamples = 3\nvalue = [0, 3]"] ;
284 -> 292 ;
293 [label="avg_glucose_level <= 245.085\nentropy = 0.408\nsamples = 49\nvalue = [45, 4]"] ;
283 -> 293 ;
294 [label="age <= 0.363\nentropy = 0.337\nsamples = 48\nvalue = [45, 3]"] ;
293 -> 294 ;
295 [label="Residence_type <= 0.5\nentropy = 1.0\nsamples = 2\nvalue = [1, 1]"] ;
294 -> 295 ;
296 [label="entropy = 0.0\nsamples = 1\nvalue = [1, 0]"] ;
295 -> 296 ;
297 [label="entropy = 0.0\nsamples = 1\nvalue = [0, 1]"] ;
295 -> 297 ;
298 [label="avg_glucose_level <= 207.215\nentropy = 0.258\nsamples = 46\nvalue = [44, 2]"] ;
294 -> 298 ;
299 [label="age <= 0.407\nentropy = 0.162\nsamples = 42\nvalue = [41, 1]"] ;
298 -> 299 ;
300 [label="Residence_type <= 0.5\nentropy = 0.592\nsamples = 7\nvalue = [6, 1]"] ;
299 -> 300 ;
301 [label="hypertension <= 0.5\nentropy = 1.0\nsamples = 2\nvalue = [1, 1]"] ;
300 -> 301 ;
302 [label="entropy = 0.0\nsamples = 1\nvalue = [0, 1]"] ;
301 -> 302 ;
303 [label="entropy = 0.0\nsamples = 1\nvalue = [1, 0]"] ;
301 -> 303 ;
304 [label="entropy = 0.0\nsamples = 5\nvalue = [5, 0]"] ;
300 -> 304 ;
305 [label="entropy = 0.0\nsamples = 35\nvalue = [35, 0]"] ;
299 -> 305 ;
306 [label="bmi <= 0.312\nentropy = 0.811\nsamples = 4\nvalue = [3, 1]"] ;
298 -> 306 ;
307 [label="entropy = 0.0\nsamples = 1\nvalue = [0, 1]"] ;
306 -> 307 ;
308 [label="entropy = 0.0\nsamples = 3\nvalue = [3, 0]"] ;
306 -> 308 ;
309 [label="entropy = 0.0\nsamples = 1\nvalue = [0, 1]"] ;
293 -> 309 ;
310 [label="smoking_status_formerly smoked <= 0.977\nentropy = 0.711\nsamples = 360\nvalue = [70, 290]"] ;
218 -> 310 ;
311 [label="smoking_status_formerly smoked <= 0.019\nentropy = 0.586\nsamples = 306\nvalue = [43, 263]"] ;
310 -> 311 ;
312 [label="smoking_status_never smoked <= 0.988\nentropy = 0.713\nsamples = 220\nvalue = [43, 177]"] ;
311 -> 312 ;
313 [label="hypertension <= 0.5\nentropy = 0.516\nsamples = 130\nvalue = [15, 115]"] ;
312 -> 313 ;
314 [label="smoking_status_never smoked <= 0.009\nentropy = 0.38\nsamples = 122\nvalue = [9, 113]"] ;
313 -> 314 ;
315 [label="avg_glucose_level <= 93.355\nentropy = 0.539\nsamples = 73\nvalue = [9, 64]"] ;
314 -> 315 ;
316 [label="avg_glucose_level <= 90.605\nentropy = 0.937\nsamples = 17\nvalue = [6, 11]"] ;
315 -> 316 ;
317 [label="avg_glucose_level <= 70.46\nentropy = 0.619\nsamples = 13\nvalue = [2, 11]"] ;
316 -> 317 ;
318 [label="avg_glucose_level <= 58.61\nentropy = 1.0\nsamples = 4\nvalue = [2, 2]"] ;
317 -> 318 ;
319 [label="entropy = 0.0\nsamples = 2\nvalue = [0, 2]"] ;
318 -> 319 ;
320 [label="entropy = 0.0\nsamples = 2\nvalue = [2, 0]"] ;
318 -> 320 ;
321 [label="entropy = 0.0\nsamples = 9\nvalue = [0, 9]"] ;
317 -> 321 ;
322 [label="entropy = 0.0\nsamples = 4\nvalue = [4, 0]"] ;
316 -> 322 ;
323 [label="bmi <= 0.077\nentropy = 0.301\nsamples = 56\nvalue = [3, 53]"] ;
315 -> 323 ;
324 [label="entropy = 0.0\nsamples = 37\nvalue = [0, 37]"] ;
323 -> 324 ;
325 [label="avg_glucose_level <= 141.734\nentropy = 0.629\nsamples = 19\nvalue = [3, 16]"] ;
323 -> 325 ;
326 [label="entropy = 0.0\nsamples = 2\nvalue = [2, 0]"] ;
325 -> 326 ;
327 [label="avg_glucose_level <= 223.413\nentropy = 0.323\nsamples = 17\nvalue = [1, 16]"] ;
325 -> 327 ;
328 [label="entropy = 0.0\nsamples = 16\nvalue = [0, 16]"] ;
327 -> 328 ;
329 [label="entropy = 0.0\nsamples = 1\nvalue = [1, 0]"] ;
327 -> 329 ;
330 [label="entropy = 0.0\nsamples = 49\nvalue = [0, 49]"] ;
314 -> 330 ;
331 [label="avg_glucose_level <= 239.072\nentropy = 0.811\nsamples = 8\nvalue = [6, 2]"] ;
313 -> 331 ;
332 [label="entropy = 0.0\nsamples = 6\nvalue = [6, 0]"] ;
331 -> 332 ;
333 [label="entropy = 0.0\nsamples = 2\nvalue = [0, 2]"] ;
331 -> 333 ;
334 [label="avg_glucose_level <= 80.328\nentropy = 0.894\nsamples = 90\nvalue = [28, 62]"] ;
312 -> 334 ;
335 [label="avg_glucose_level <= 57.75\nentropy = 0.552\nsamples = 39\nvalue = [5, 34]"] ;
334 -> 335 ;
336 [label="entropy = 0.0\nsamples = 1\nvalue = [1, 0]"] ;
335 -> 336 ;
337 [label="ever_married <= 0.5\nentropy = 0.485\nsamples = 38\nvalue = [4, 34]"] ;
335 -> 337 ;
338 [label="entropy = 0.0\nsamples = 1\nvalue = [1, 0]"] ;
337 -> 338 ;
339 [label="avg_glucose_level <= 72.326\nentropy = 0.406\nsamples = 37\nvalue = [3, 34]"] ;
337 -> 339 ;
340 [label="entropy = 0.0\nsamples = 24\nvalue = [0, 24]"] ;
339 -> 340 ;
341 [label="age <= 1.341\nentropy = 0.779\nsamples = 13\nvalue = [3, 10]"] ;
339 -> 341 ;
342 [label="entropy = 0.0\nsamples = 2\nvalue = [2, 0]"] ;
341 -> 342 ;
343 [label="Residence_type <= 0.5\nentropy = 0.439\nsamples = 11\nvalue = [1, 10]"] ;
341 -> 343 ;
344 [label="entropy = 0.0\nsamples = 7\nvalue = [0, 7]"] ;
343 -> 344 ;
345 [label="bmi <= -0.299\nentropy = 0.811\nsamples = 4\nvalue = [1, 3]"] ;
343 -> 345 ;
346 [label="entropy = 0.0\nsamples = 3\nvalue = [0, 3]"] ;
345 -> 346 ;
347 [label="entropy = 0.0\nsamples = 1\nvalue = [1, 0]"] ;
345 -> 347 ;
348 [label="ever_married <= 0.5\nentropy = 0.993\nsamples = 51\nvalue = [23, 28]"] ;
334 -> 348 ;
349 [label="avg_glucose_level <= 88.31\nentropy = 0.414\nsamples = 12\nvalue = [1, 11]"] ;
348 -> 349 ;
350 [label="entropy = 0.0\nsamples = 1\nvalue = [1, 0]"] ;
349 -> 350 ;
351 [label="entropy = 0.0\nsamples = 11\nvalue = [0, 11]"] ;
349 -> 351 ;
352 [label="bmi <= 0.949\nentropy = 0.988\nsamples = 39\nvalue = [22, 17]"] ;
348 -> 352 ;
353 [label="age <= 1.496\nentropy = 0.918\nsamples = 33\nvalue = [22, 11]"] ;
352 -> 353 ;
354 [label="bmi <= 0.261\nentropy = 0.485\nsamples = 19\nvalue = [17, 2]"] ;
353 -> 354 ;
355 [label="entropy = 0.0\nsamples = 10\nvalue = [10, 0]"] ;
354 -> 355 ;
356 [label="bmi <= 0.306\nentropy = 0.764\nsamples = 9\nvalue = [7, 2]"] ;
354 -> 356 ;
357 [label="avg_glucose_level <= 148.805\nentropy = 0.918\nsamples = 3\nvalue = [1, 2]"] ;
356 -> 357 ;
358 [label="entropy = 0.0\nsamples = 1\nvalue = [0, 1]"] ;
357 -> 358 ;
359 [label="Residence_type <= 0.5\nentropy = 1.0\nsamples = 2\nvalue = [1, 1]"] ;
357 -> 359 ;
360 [label="entropy = 0.0\nsamples = 1\nvalue = [0, 1]"] ;
359 -> 360 ;
361 [label="entropy = 0.0\nsamples = 1\nvalue = [1, 0]"] ;
359 -> 361 ;
362 [label="entropy = 0.0\nsamples = 6\nvalue = [6, 0]"] ;
356 -> 362 ;
363 [label="bmi <= -0.208\nentropy = 0.94\nsamples = 14\nvalue = [5, 9]"] ;
353 -> 363 ;
364 [label="avg_glucose_level <= 219.44\nentropy = 0.918\nsamples = 6\nvalue = [4, 2]"] ;
363 -> 364 ;
365 [label="bmi <= -0.591\nentropy = 0.722\nsamples = 5\nvalue = [4, 1]"] ;
364 -> 365 ;
366 [label="avg_glucose_level <= 91.91\nentropy = 1.0\nsamples = 2\nvalue = [1, 1]"] ;
365 -> 366 ;
367 [label="entropy = 0.0\nsamples = 1\nvalue = [1, 0]"] ;
366 -> 367 ;
368 [label="entropy = 0.0\nsamples = 1\nvalue = [0, 1]"] ;
366 -> 368 ;
369 [label="entropy = 0.0\nsamples = 3\nvalue = [3, 0]"] ;
365 -> 369 ;
370 [label="entropy = 0.0\nsamples = 1\nvalue = [0, 1]"] ;
364 -> 370 ;
371 [label="Residence_type <= 0.5\nentropy = 0.544\nsamples = 8\nvalue = [1, 7]"] ;
363 -> 371 ;
372 [label="entropy = 0.0\nsamples = 7\nvalue = [0, 7]"] ;
371 -> 372 ;
373 [label="entropy = 0.0\nsamples = 1\nvalue = [1, 0]"] ;
371 -> 373 ;
374 [label="entropy = 0.0\nsamples = 6\nvalue = [0, 6]"] ;
352 -> 374 ;
375 [label="entropy = 0.0\nsamples = 86\nvalue = [0, 86]"] ;
311 -> 375 ;
376 [label="avg_glucose_level <= 225.605\nentropy = 1.0\nsamples = 54\nvalue = [27, 27]"] ;
310 -> 376 ;
377 [label="avg_glucose_level <= 102.79\nentropy = 0.971\nsamples = 45\nvalue = [27, 18]"] ;
376 -> 377 ;
378 [label="avg_glucose_level <= 60.905\nentropy = 0.795\nsamples = 25\nvalue = [19, 6]"] ;
377 -> 378 ;
379 [label="entropy = 0.0\nsamples = 3\nvalue = [0, 3]"] ;
378 -> 379 ;
380 [label="bmi <= -0.299\nentropy = 0.575\nsamples = 22\nvalue = [19, 3]"] ;
378 -> 380 ;
381 [label="Residence_type <= 0.5\nentropy = 0.881\nsamples = 10\nvalue = [7, 3]"] ;
380 -> 381 ;
382 [label="hypertension <= 0.5\nentropy = 0.971\nsamples = 5\nvalue = [2, 3]"] ;
381 -> 382 ;
383 [label="age <= 1.473\nentropy = 0.918\nsamples = 3\nvalue = [2, 1]"] ;
382 -> 383 ;
384 [label="entropy = 0.0\nsamples = 2\nvalue = [2, 0]"] ;
383 -> 384 ;
385 [label="entropy = 0.0\nsamples = 1\nvalue = [0, 1]"] ;
383 -> 385 ;
386 [label="entropy = 0.0\nsamples = 2\nvalue = [0, 2]"] ;
382 -> 386 ;
387 [label="entropy = 0.0\nsamples = 5\nvalue = [5, 0]"] ;
381 -> 387 ;
388 [label="entropy = 0.0\nsamples = 12\nvalue = [12, 0]"] ;
380 -> 388 ;
389 [label="avg_glucose_level <= 187.045\nentropy = 0.971\nsamples = 20\nvalue = [8, 12]"] ;
377 -> 389 ;
390 [label="avg_glucose_level <= 120.485\nentropy = 0.414\nsamples = 12\nvalue = [1, 11]"] ;
389 -> 390 ;
391 [label="avg_glucose_level <= 110.92\nentropy = 0.918\nsamples = 3\nvalue = [1, 2]"] ;
390 -> 391 ;
392 [label="entropy = 0.0\nsamples = 2\nvalue = [0, 2]"] ;
391 -> 392 ;
393 [label="entropy = 0.0\nsamples = 1\nvalue = [1, 0]"] ;
391 -> 393 ;
394 [label="entropy = 0.0\nsamples = 9\nvalue = [0, 9]"] ;
390 -> 394 ;
395 [label="bmi <= 0.533\nentropy = 0.544\nsamples = 8\nvalue = [7, 1]"] ;
389 -> 395 ;
396 [label="entropy = 0.0\nsamples = 7\nvalue = [7, 0]"] ;
395 -> 396 ;
397 [label="entropy = 0.0\nsamples = 1\nvalue = [0, 1]"] ;
395 -> 397 ;
398 [label="entropy = 0.0\nsamples = 9\nvalue = [0, 9]"] ;
376 -> 398 ;
}